the -0.104309194 -0.018646833 -0.20601329 0.05244698 0.30858165 -0.23074502 0.15820907 -0.26439634 -0.082654364 -0.041126855 -0.055493627 -0.23032495 0.0690345 0.32346758 0.02316743 -0.104462326 -0.20062992 0.3413355 0.16288573 0.022774309 -0.20919748 0.05968514 0.11188885 0.10376874 0.030436337 0.15864044 -0.07553466 -0.04625332 0.107277215 -0.27081832 -0.20628028 -0.1507271 -0.19812627 0.112976305 -0.44535336 0.1287751 0.22030261 0.101263106 0.18636957 -0.026011186 0.18948488 0.055253517 0.18206324 -0.07725511 -0.2311563 0.098864414 -0.09612895 -0.33312386 -0.0011961552 0.23785596 0.2234182 -0.21541756 0.13379335 -0.022706952 0.09765183 0.108636715 -0.10799895 0.53610426 -0.14859512 0.27460244 -0.1342208 -0.05769885 0.21319374 0.2667682 -0.042579472 0.11640742 -0.093538076 0.07865891 0.11088241 -0.16853589 -0.090557694 0.087245196 -0.26493993 0.23482274 0.046006486 0.047450177 0.042121664 -0.060992222 0.2659836 -0.14357024 0.07739838 0.059844233 0.13216783 0.069091246 -0.18727523 -0.117168784 -0.050001357 -0.17043911 0.009899522 -0.03804602 0.08875197 -0.08673595 0.052454986 -0.18876198 0.04370748 -0.2643994 -0.07310138 -0.43126154 0.3226793 -0.2240079 0.012055791 0.28303576 -0.121103466 -0.09058895 -0.045158733 -0.05465212 0.21036279 0.27792457 0.26347777 0.21014634 -0.06459579 0.16214436 -0.064349934 -0.14144434 -0.15038292 -0.048133958 0.34996685 0.46753663 0.023861533 0.12982976 0.041982245 -0.100362495 0.08887676 0.26450378 0.13727455 0.13446753 0.017997896 0.057770006 -0.29668066 -0.069364026 0.025748286 0.041760325 0.2264219 -0.10827448 -0.3505363 -0.14897679 0.11923334 -0.3746681 0.29612267 -0.11697859 -0.15010326 0.22873935 0.44217324 0.3381415 0.018804174 0.30057403 0.09478218 0.04769712 -0.16247988 -0.02258516 0.26999044 -0.19539572 0.094773926 0.032481857 -0.22284247 0.036456104 0.09335958 -0.31851217 -0.02252638 0.034681473 -0.0126673505 0.102981314 0.20423275 -0.32632 -0.1456463 -0.012975293 0.061450373 0.07135527 -0.05883859 -0.03034784 -0.007706178 0.19333832 -0.049080506 -0.009158565 0.1825075 -0.012314123 0.0038972837 0.15337253 -0.15402228 -0.0076937964 0.14447358 -0.1746288 0.08272588 -0.0670631 0.12846653 0.29496986 -0.07999447 0.05114646 -0.06182356 0.1375505 -0.061182987 -0.07434235 0.080864534 0.015515018 -0.052532956 -0.005872222 -0.0020956069 -0.021782923 0.12357216 -0.1860106 
of -0.15307231 -0.058604103 -0.2156301 -0.06449998 0.14509636 -0.26766977 0.10791776 -0.33006942 -0.02262682 0.015501234 0.090508126 -0.22175977 0.061036464 0.3295537 -0.11834407 -0.029848387 -0.24349421 0.2667471 0.21867222 0.013697372 -0.2613885 0.12791282 0.18258384 0.2663241 0.019634217 0.096163645 -0.09209584 0.008509967 0.09836592 -0.20396355 -0.2560117 -0.27097768 -0.1708743 0.040295556 -0.47719312 0.087298766 0.15796158 0.11120321 0.26087952 -0.0009228269 0.26837692 0.1768245 0.25624362 -0.014504868 -0.18608806 -0.031651597 -0.06943674 -0.26125515 0.04684165 0.20780404 0.14500777 -0.06298997 0.1540661 -0.13859764 0.045086034 0.15568912 -0.1093077 0.6620114 -0.21661496 0.2778597 -0.11980833 -0.091476664 0.18057896 0.3986885 0.0030221986 0.21279882 -0.21525905 0.14260583 0.023652952 -0.09245748 -0.180268 0.15493377 -0.35377398 0.21250995 -0.099827625 0.10934474 0.008399746 -0.06383726 0.26165667 -0.012828655 -0.121886514 -0.00048946653 0.02761263 0.12491045 -0.15449345 -0.051469754 -0.0416674 -0.21628387 0.13355039 -0.11366278 0.027130036 -0.088751376 -0.0009954309 -0.10800895 0.013144115 -0.25631905 -0.25887096 -0.38392535 0.4211718 -0.19506398 0.06274848 0.24589747 -0.046295844 -0.06358034 -0.09317603 0.011065392 0.22556357 0.29102972 0.33545184 0.10309257 -0.1606641 0.09333631 -0.029618138 -0.23950171 -0.17703694 -0.07351401 0.3005211 0.36705288 -0.075024985 0.104201406 0.024445986 -0.15745689 0.02396079 0.30105856 0.15101378 0.20795697 0.04979336 -0.0062870663 -0.32958287 -0.018429987 0.015933905 -0.034556434 0.18037479 -0.045168575 -0.3068321 -0.07154896 0.065565005 -0.3844814 0.21680588 -0.11855025 -0.13844763 0.2506176 0.40574506 0.26815093 0.088343285 0.22915493 0.056102738 0.03125266 -0.13334733 -0.051544193 0.21440479 -0.1864602 0.2140604 0.014649673 -0.36585087 0.043315057 -0.06316403 -0.31226963 0.09478014 -0.029855004 -0.11230986 0.040685717 0.05176065 -0.15480489 -0.11419931 -0.047290258 0.06661459 0.09060951 -0.28018725 0.089766346 0.0932052 0.0018593243 -0.14505509 -0.029420044 0.12261958 0.005539851 0.011901546 0.13563843 -0.108732425 -0.07894911 0.19190839 -0.25797498 -0.005430589 -0.18669464 0.010839774 0.21189412 -0.013473316 0.06066785 -0.06370934 0.17264809 -0.032629345 -0.043505788 0.15490516 -0.005580548 -0.118213974 0.046704333 0.061143924 0.025854353 0.07392669 -0.2645793 
. -0.06462708 -0.0040267706 -0.120831534 0.047936678 0.020391092 -0.2511415 0.24939045 -0.21717662 -0.047897838 -0.05909782 0.032739483 -0.1491381 0.06141724 0.3577104 -0.2598779 -0.08249759 -0.1298018 0.418706 0.23706934 -0.02286387 0.024641115 0.07720368 0.00664309 0.13306062 -0.013493897 0.2674661 -0.062075373 0.005821851 0.058098625 -0.054140083 -0.13097407 -0.19376093 -0.13983418 0.16961208 -0.28978756 0.16580136 -0.026412804 0.12206303 0.097208425 -0.25871778 0.11347354 0.06602388 0.11582976 -0.119157635 -0.20571241 -0.07518225 -0.24800412 -0.057282206 -0.03266616 0.12907249 0.21666804 0.047488756 0.1493187 -0.050128423 0.14966907 0.06175816 -0.11844066 0.3844907 -0.12128573 0.19625519 -0.06973744 -0.0676319 0.109814756 0.1217566 -0.28347543 0.24936041 -0.05377785 -0.012367285 0.24418554 -0.36308077 -0.37989613 0.08602862 -0.2002065 0.32399204 0.043797925 0.029088425 -0.22408319 0.1673961 0.3613458 -0.25244638 0.13106021 -0.0825439 0.18763323 0.055261075 -0.069198035 -0.051538665 0.007776295 -0.15441677 -0.11811081 0.024985285 0.044043694 -0.24046235 0.09013458 0.09654078 0.14171344 -0.19163997 -0.103469595 -0.046760097 0.11406276 -0.13768654 -0.055183753 0.4185886 0.114748694 -0.046727 0.023760134 -0.18599291 0.10973047 0.014072679 0.20223166 0.15688251 -0.3003074 -0.012601664 -0.08492305 0.050059754 -0.11924462 0.039726317 0.39175317 0.3078946 0.10649471 0.051809814 0.3174139 0.027803026 0.0025918756 0.20760189 0.16520639 0.25957325 0.37339348 0.05955099 -0.117194116 -0.052422803 0.098521285 0.051756814 0.08309311 0.04041935 -0.2657008 -0.20194508 0.022207431 -0.36286625 0.13375983 0.032647163 -0.018486433 0.24572249 0.16057172 0.09509536 -0.034092214 0.060505327 0.20041259 0.056616068 -0.0647641 -0.0514193 0.07370055 0.023853378 0.07250179 0.06492185 -0.40539268 -0.08270262 0.10984543 -0.395701 0.034450725 -0.012551964 -0.012010141 0.26557156 0.2837287 -0.021114992 -0.25707564 0.0017474303 0.079170816 0.26897275 -0.16672416 -0.11494222 -0.002221141 0.17065237 -0.052259 -0.14916816 0.070595466 -0.15927103 -0.1228429 -0.13348906 -0.33103392 -0.026806891 0.14030974 0.039953407 0.15961726 -0.055223808 0.064337865 0.3433119 -0.20035817 -0.09715565 -0.21404026 -0.038672823 -0.121291645 -0.051883165 -0.022708517 -0.02344582 -0.056548327 0.16291258 -0.09259785 0.016778193 0.05505567 -0.1421245 
